#pragma once
#include <cstdarg>
namespace Eloquent {
    namespace ML {
        namespace Port {
            class XGBClassifier {
                public:
                    /**
                    * Predict class for features vector
                    */
                    int predict(float *x) {
                        float votes[3] = { 0.0f };
                        // tree #1
                        if (x[1] <= 1.0) {
                            votes[0] += 0.37160096;
                        }

                        else {
                            votes[0] += -0.18652284;
                        }

                        // tree #2
                        if (x[0] <= 50.058) {
                            if (x[1] <= 2.0) {
                                votes[1] += 0.37177503;
                            }

                            else {
                                votes[1] += -0.18583223;
                            }
                        }

                        else {
                            votes[1] += -0.18593852;
                        }

                        // tree #3
                        if (x[1] <= 2.0) {
                            votes[2] += -0.18655975;
                        }

                        else {
                            votes[2] += 0.37160096;
                        }

                        // tree #4
                        if (x[1] <= 1.0) {
                            votes[0] += 0.26611304;
                        }

                        else {
                            votes[0] += -0.16954504;
                        }

                        // tree #5
                        if (x[1] <= 1.0) {
                            votes[1] += -0.16897963;
                        }

                        else {
                            if (x[0] <= 9.99) {
                                votes[1] += -0.16877328;
                            }

                            else {
                                votes[1] += 0.26591605;
                            }
                        }

                        // tree #6
                        if (x[1] <= 2.0) {
                            votes[2] += -0.16953783;
                        }

                        else {
                            votes[2] += 0.26588416;
                        }

                        // tree #7
                        if (x[1] <= 1.0) {
                            votes[0] += 0.2159222;
                        }

                        else {
                            votes[0] += -0.15772729;
                        }

                        // tree #8
                        if (x[3] <= 70.105) {
                            if (x[0] <= 5.1) {
                                votes[1] += -0.15553802;
                            }

                            else {
                                votes[1] += 0.2134739;
                            }
                        }

                        else {
                            votes[1] += -0.15761456;
                        }

                        // tree #9
                        if (x[1] <= 2.0) {
                            votes[2] += -0.1577501;
                        }

                        else {
                            votes[2] += 0.21586758;
                        }

                        // tree #10
                        if (x[0] <= 50.058) {
                            votes[0] += -0.14928535;
                        }

                        else {
                            votes[0] += 0.1871279;
                        }

                        // tree #11
                        if (x[0] <= 50.058) {
                            if (x[1] <= 2.0) {
                                votes[1] += 0.18724725;
                            }

                            else {
                                votes[1] += -0.14852056;
                            }
                        }

                        else {
                            votes[1] += -0.14858973;
                        }

                        // tree #12
                        if (x[1] <= 2.0) {
                            votes[2] += -0.14933906;
                        }

                        else {
                            votes[2] += 0.1871878;
                        }

                        // tree #13
                        if (x[0] <= 50.058) {
                            votes[0] += -0.14307155;
                        }

                        else {
                            votes[0] += 0.16896224;
                        }

                        // tree #14
                        if (x[3] <= 70.105) {
                            if (x[0] <= 5.1) {
                                votes[1] += -0.140129;
                            }

                            else {
                                votes[1] += 0.16535047;
                            }
                        }

                        else {
                            votes[1] += -0.14273256;
                        }

                        // tree #15
                        if (x[1] <= 2.0) {
                            votes[2] += -0.14305297;
                        }

                        else {
                            votes[2] += 0.16895305;
                        }

                        // tree #16
                        if (x[0] <= 50.058) {
                            votes[0] += -0.13830984;
                        }

                        else {
                            votes[0] += 0.15675199;
                        }

                        // tree #17
                        if (x[3] <= 70.105) {
                            if (x[1] <= 2.0) {
                                votes[1] += 0.1550732;
                            }

                            else {
                                votes[1] += -0.13500983;
                            }
                        }

                        else {
                            votes[1] += -0.1380235;
                        }

                        // tree #18
                        if (x[2] <= 105.0) {
                            votes[2] += -0.13834713;
                        }

                        else {
                            votes[2] += 0.15670748;
                        }

                        // tree #19
                        if (x[0] <= 50.058) {
                            votes[0] += -0.13467157;
                        }

                        else {
                            votes[0] += 0.14825942;
                        }

                        // tree #20
                        if (x[1] <= 1.0) {
                            votes[1] += -0.13500886;
                        }

                        else {
                            if (x[1] <= 2.0) {
                                votes[1] += 0.14812768;
                            }

                            else {
                                votes[1] += -0.13312209;
                            }
                        }

                        // tree #21
                        if (x[0] <= 9.99) {
                            votes[2] += 0.14788483;
                        }

                        else {
                            votes[2] += -0.13473733;
                        }

                        // tree #22
                        if (x[1] <= 1.0) {
                            votes[0] += 0.14283636;
                        }

                        else {
                            votes[0] += -0.13178223;
                        }

                        // tree #23
                        if (x[3] <= 70.105) {
                            if (x[0] <= 5.1) {
                                votes[1] += -0.12658411;
                            }

                            else {
                                votes[1] += 0.1366668;
                            }
                        }

                        else {
                            votes[1] += -0.13117078;
                        }

                        // tree #24
                        if (x[1] <= 2.0) {
                            votes[2] += -0.13185494;
                        }

                        else {
                            votes[2] += 0.14165486;
                        }

                        // tree #25
                        if (x[5] <= 1.0) {
                            votes[0] += 0.1384062;
                        }

                        else {
                            votes[0] += -0.12949616;
                        }

                        // tree #26
                        if (x[5] <= 1.0) {
                            votes[1] += -0.13020532;
                        }

                        else {
                            if (x[2] <= 105.0) {
                                votes[1] += 0.13690193;
                            }

                            else {
                                votes[1] += -0.1272454;
                            }
                        }

                        // tree #27
                        if (x[1] <= 2.0) {
                            votes[2] += -0.1294323;
                        }

                        else {
                            votes[2] += 0.13689487;
                        }

                        // tree #28
                        if (x[5] <= 1.0) {
                            votes[0] += 0.13463113;
                        }

                        else {
                            votes[0] += -0.12740515;
                        }

                        // tree #29
                        if (x[3] <= 70.105) {
                            if (x[0] <= 5.1) {
                                votes[1] += -0.12066842;
                            }

                            else {
                                votes[1] += 0.12806521;
                            }
                        }

                        else {
                            votes[1] += -0.12661973;
                        }

                        // tree #30
                        if (x[1] <= 2.0) {
                            votes[2] += -0.12743616;
                        }

                        else {
                            votes[2] += 0.13296524;
                        }

                        // tree #31
                        if (x[1] <= 1.0) {
                            votes[0] += 0.1319723;
                        }

                        else {
                            votes[0] += -0.12556916;
                        }

                        // tree #32
                        if (x[3] <= 70.105) {
                            if (x[0] <= 5.1) {
                                votes[1] += -0.11737169;
                            }

                            else {
                                votes[1] += 0.12676787;
                            }
                        }

                        else {
                            votes[1] += -0.124465354;
                        }

                        // tree #33
                        if (x[1] <= 2.0) {
                            votes[2] += -0.12578899;
                        }

                        else {
                            votes[2] += 0.12992866;
                        }

                        // tree #34
                        if (x[5] <= 1.0) {
                            votes[0] += 0.12996611;
                        }

                        else {
                            votes[0] += -0.12368256;
                        }

                        // tree #35
                        if (x[3] <= 70.105) {
                            if (x[0] <= 5.1) {
                                votes[1] += -0.11278847;
                            }

                            else {
                                votes[1] += 0.123989105;
                            }
                        }

                        else {
                            votes[1] += -0.12253794;
                        }

                        // tree #36
                        if (x[1] <= 2.0) {
                            votes[2] += -0.12381768;
                        }

                        else {
                            votes[2] += 0.12698346;
                        }

                        // tree #37
                        if (x[5] <= 1.0) {
                            votes[0] += 0.12807333;
                        }

                        else {
                            votes[0] += -0.12221367;
                        }

                        // tree #38
                        if (x[1] <= 1.0) {
                            votes[1] += -0.12362827;
                        }

                        else {
                            if (x[1] <= 2.0) {
                                votes[1] += 0.1252071;
                            }

                            else {
                                votes[1] += -0.11717354;
                            }
                        }

                        // tree #39
                        if (x[2] <= 105.0) {
                            votes[2] += -0.1222064;
                        }

                        else {
                            votes[2] += 0.12454065;
                        }

                        // tree #40
                        if (x[1] <= 1.0) {
                            votes[0] += 0.12565427;
                        }

                        else {
                            votes[0] += -0.1203432;
                        }

                        // tree #41
                        if (x[3] <= 70.105) {
                            if (x[0] <= 5.1) {
                                votes[1] += -0.1054041;
                            }

                            else {
                                votes[1] += 0.12038829;
                            }
                        }

                        else {
                            votes[1] += -0.11870956;
                        }

                        // tree #42
                        if (x[2] <= 105.0) {
                            votes[2] += -0.12061799;
                        }

                        else {
                            votes[2] += 0.12208217;
                        }

                        // tree #43
                        if (x[1] <= 1.0) {
                            votes[0] += 0.12416938;
                        }

                        else {
                            votes[0] += -0.11856864;
                        }

                        // tree #44
                        if (x[3] <= 69.96) {
                            if (x[1] <= 2.0) {
                                votes[1] += 0.12025148;
                            }

                            else {
                                votes[1] += -0.0993834;
                            }
                        }

                        else {
                            votes[1] += -0.11155583;
                        }

                        // tree #45
                        if (x[1] <= 2.0) {
                            votes[2] += -0.11852969;
                        }

                        else {
                            votes[2] += 0.119669;
                        }

                        // tree #46
                        if (x[1] <= 1.0) {
                            votes[0] += 0.12139042;
                        }

                        else {
                            votes[0] += -0.116439365;
                        }

                        // tree #47
                        if (x[1] <= 1.0) {
                            votes[1] += -0.1158626;
                        }

                        else {
                            if (x[1] <= 2.0) {
                                votes[1] += 0.118189484;
                            }

                            else {
                                votes[1] += -0.10835693;
                            }
                        }

                        // tree #48
                        if (x[1] <= 2.0) {
                            votes[2] += -0.116648786;
                        }

                        else {
                            votes[2] += 0.11759813;
                        }

                        // tree #49
                        if (x[1] <= 1.0) {
                            votes[0] += 0.11856458;
                        }

                        else {
                            votes[0] += -0.11424027;
                        }

                        // tree #50
                        if (x[3] <= 69.96) {
                            if (x[1] <= 2.0) {
                                votes[1] += 0.11496077;
                            }

                            else {
                                votes[1] += -0.09155096;
                            }
                        }

                        else {
                            votes[1] += -0.10858852;
                        }

                        // tree #51
                        if (x[0] <= 9.99) {
                            votes[2] += 0.11505058;
                        }

                        else {
                            votes[2] += -0.11405131;
                        }

                        // tree #52
                        if (x[1] <= 1.0) {
                            votes[0] += 0.11542766;
                        }

                        else {
                            votes[0] += -0.11160719;
                        }

                        // tree #53
                        if (x[1] <= 1.0) {
                            votes[1] += -0.10702015;
                        }

                        else {
                            if (x[1] <= 2.0) {
                                votes[1] += 0.11251656;
                            }

                            else {
                                votes[1] += -0.099780165;
                            }
                        }

                        // tree #54
                        if (x[1] <= 2.0) {
                            votes[2] += -0.111401334;
                        }

                        else {
                            votes[2] += 0.112204626;
                        }

                        // tree #55
                        if (x[5] <= 1.0) {
                            votes[0] += 0.11242005;
                        }

                        else {
                            votes[0] += -0.108207695;
                        }

                        // tree #56
                        if (x[3] <= 69.96) {
                            if (x[0] <= 5.1) {
                                votes[1] += -0.078914076;
                            }

                            else {
                                votes[1] += 0.10877621;
                            }
                        }

                        else {
                            votes[1] += -0.100633904;
                        }

                        // tree #57
                        if (x[2] <= 105.0) {
                            votes[2] += -0.10871907;
                        }

                        else {
                            votes[2] += 0.10871899;
                        }

                        // tree #58
                        if (x[1] <= 1.0) {
                            votes[0] += 0.10754106;
                        }

                        else {
                            votes[0] += -0.10464036;
                        }

                        // tree #59
                        if (x[0] <= 9.99) {
                            votes[1] += -0.091899596;
                        }

                        else {
                            if (x[0] <= 50.058) {
                                votes[1] += 0.10561515;
                            }

                            else {
                                votes[1] += -0.09060854;
                            }
                        }

                        // tree #60
                        if (x[1] <= 2.0) {
                            votes[2] += -0.10524938;
                        }

                        else {
                            votes[2] += 0.105633296;
                        }

                        // tree #61
                        if (x[5] <= 1.0) {
                            votes[0] += 0.10447455;
                        }

                        else {
                            votes[0] += -0.10025932;
                        }

                        // tree #62
                        if (x[3] <= 70.105) {
                            if (x[1] <= 2.0) {
                                votes[1] += 0.09769048;
                            }

                            else {
                                votes[1] += -0.06744157;
                            }
                        }

                        else {
                            votes[1] += -0.09470467;
                        }

                        // tree #63
                        if (x[0] <= 9.99) {
                            votes[2] += 0.100957744;
                        }

                        else {
                            votes[2] += -0.10017531;
                        }

                        // tree #64
                        if (x[0] <= 50.058) {
                            votes[0] += -0.09625188;
                        }

                        else {
                            votes[0] += 0.09711358;
                        }

                        // tree #65
                        if (x[3] <= 70.105) {
                            if (x[0] <= 5.1) {
                                votes[1] += -0.06318932;
                            }

                            else {
                                votes[1] += 0.09122116;
                            }
                        }

                        else {
                            votes[1] += -0.089288086;
                        }

                        // tree #66
                        if (x[2] <= 105.0) {
                            votes[2] += -0.09626913;
                        }

                        else {
                            votes[2] += 0.09757509;
                        }

                        // tree #67
                        if (x[1] <= 1.0) {
                            votes[0] += 0.09932484;
                        }

                        else {
                            votes[0] += -0.09248772;
                        }

                        // tree #68
                        if (x[3] <= 70.105) {
                            votes[1] += 0.05353631;
                        }

                        else {
                            votes[1] += -0.0847462;
                        }

                        // tree #69
                        if (x[1] <= 2.0) {
                            votes[2] += -0.09260015;
                        }

                        else {
                            votes[2] += 0.09367117;
                        }

                        // tree #70
                        if (x[1] <= 1.0) {
                            votes[0] += 0.09583847;
                        }

                        else {
                            votes[0] += -0.088342205;
                        }

                        // tree #71
                        votes[1] += -0.005279529;
                        // tree #72
                        if (x[0] <= 9.99) {
                            votes[2] += 0.08882468;
                        }

                        else {
                            votes[2] += -0.08776288;
                        }

                        // tree #73
                        if (x[1] <= 1.0) {
                            votes[0] += 0.09320135;
                        }

                        else {
                            votes[0] += -0.084118746;
                        }

                        // tree #74
                        votes[1] += -0.008302093;
                        // tree #75
                        if (x[1] <= 2.0) {
                            votes[2] += -0.08363768;
                        }

                        else {
                            votes[2] += 0.086028315;
                        }

                        // tree #76
                        if (x[1] <= 1.0) {
                            votes[0] += 0.089603975;
                        }

                        else {
                            votes[0] += -0.08041002;
                        }

                        // tree #77
                        votes[1] += -0.00959424;
                        // tree #78
                        if (x[2] <= 105.0) {
                            votes[2] += -0.08122095;
                        }

                        else {
                            votes[2] += 0.083995774;
                        }

                        // tree #79
                        if (x[0] <= 50.058) {
                            votes[0] += -0.078808464;
                        }

                        else {
                            votes[0] += 0.075418085;
                        }

                        // tree #80
                        votes[1] += -0.009133637;
                        // tree #81
                        if (x[1] <= 2.0) {
                            votes[2] += -0.07850345;
                        }

                        else {
                            votes[2] += 0.08039086;
                        }

                        // tree #82
                        if (x[1] <= 1.0) {
                            votes[0] += 0.08134545;
                        }

                        else {
                            votes[0] += -0.07475077;
                        }

                        // tree #83
                        votes[1] += -0.0043237875;
                        // tree #84
                        votes[2] += 0.0023768155;
                        // tree #85
                        votes[0] += 0.010724485;
                        // tree #86
                        votes[1] += 0.002160525;
                        // tree #87
                        votes[2] += 0.0009394171;
                        // tree #88
                        votes[0] += -0.0072655384;
                        // tree #89
                        votes[1] += -0.009323804;
                        // tree #90
                        votes[2] += 0.0022529857;
                        // tree #91
                        votes[0] += -0.0015588747;
                        // tree #92
                        votes[1] += 0.0021842953;
                        // tree #93
                        votes[2] += -0.00060617574;
                        // tree #94
                        votes[0] += 0.009513952;
                        // tree #95
                        votes[1] += -0.0067306114;
                        // tree #96
                        votes[2] += 0.0017777102;
                        // tree #97
                        votes[0] += 0.007761292;
                        // tree #98
                        votes[1] += 0.00083816773;
                        // tree #99
                        votes[2] += 0.00064338726;
                        // tree #100
                        if (x[1] <= 1.0) {
                            votes[0] += 0.07919107;
                        }

                        else {
                            votes[0] += -0.07575982;
                        }

                        // tree #101
                        votes[1] += -0.005231154;
                        // tree #102
                        votes[2] += 0.0018775748;
                        // tree #103
                        votes[0] += 0.008546802;
                        // tree #104
                        votes[1] += -0.0024452098;
                        // tree #105
                        votes[2] += 0.0007937794;
                        // tree #106
                        votes[0] += 0.004519185;
                        // tree #107
                        votes[1] += 0.004430856;
                        // tree #108
                        votes[2] += 0.0022728625;
                        // tree #109
                        votes[0] += 0.0088450145;
                        // tree #110
                        votes[1] += 0.0061369613;
                        // tree #111
                        votes[2] += 0.0027228622;
                        // tree #112
                        votes[0] += 0.0055542663;
                        // tree #113
                        votes[1] += -0.0056031737;
                        // tree #114
                        votes[2] += 0.00012730598;
                        // tree #115
                        votes[0] += -0.011013609;
                        // tree #116
                        votes[1] += -0.0019691447;
                        // tree #117
                        votes[2] += -0.0019343869;
                        // tree #118
                        votes[0] += -0.008923668;
                        // tree #119
                        votes[1] += 0.007144851;
                        // tree #120
                        votes[2] += -0.0013277539;
                        // tree #121
                        votes[0] += -0.011508063;
                        // tree #122
                        votes[1] += -0.0053899153;
                        // tree #123
                        votes[2] += 0.00020945184;
                        // tree #124
                        votes[0] += -0.005740416;
                        // tree #125
                        votes[1] += 0.0021460964;
                        // tree #126
                        votes[2] += -0.0011693374;
                        // tree #127
                        votes[0] += 0.007293346;
                        // tree #128
                        votes[1] += 0.00399875;
                        // tree #129
                        votes[2] += -0.0010838684;
                        // tree #130
                        votes[0] += 0.0099271275;
                        // tree #131
                        votes[1] += 0.001702812;
                        // tree #132
                        votes[2] += -0.0010351271;
                        // tree #133
                        votes[0] += 0.0063620964;
                        // tree #134
                        votes[1] += 0.007813942;
                        // tree #135
                        votes[2] += 0.00022609351;
                        // tree #136
                        votes[0] += 0.0077191563;
                        // tree #137
                        votes[1] += -0.005509071;
                        // tree #138
                        votes[2] += 0.00071343;
                        // tree #139
                        votes[0] += 0.0046764626;
                        // tree #140
                        votes[1] += -0.006566084;
                        // tree #141
                        votes[2] += 0.0046460796;
                        // tree #142
                        votes[0] += -0.008813291;
                        // tree #143
                        votes[1] += -0.005516405;
                        // tree #144
                        votes[2] += 0.0005561316;
                        // tree #145
                        votes[0] += 0.004054377;
                        // tree #146
                        votes[1] += 0.0024006607;
                        // tree #147
                        votes[2] += 0.0035335787;
                        // tree #148
                        votes[0] += 0.0073616444;
                        // tree #149
                        votes[1] += -0.0060072783;
                        // tree #150
                        votes[2] += 0.0014527587;
                        // tree #151
                        votes[0] += 0.0049530747;
                        // tree #152
                        votes[1] += 0.0033546311;
                        // tree #153
                        votes[2] += 0.00241209;
                        // tree #154
                        votes[0] += 0.0023662194;
                        // tree #155
                        votes[1] += 0.008597841;
                        // tree #156
                        votes[2] += 0.0011976064;
                        // tree #157
                        votes[0] += 0.0047158236;
                        // tree #158
                        votes[1] += -0.0037387551;
                        // tree #159
                        votes[2] += -0.0015483113;
                        // tree #160
                        votes[0] += -0.009216887;
                        // tree #161
                        votes[1] += -0.0020492696;
                        // tree #162
                        votes[2] += 0.00048352027;
                        // tree #163
                        votes[0] += -0.0042638946;
                        // tree #164
                        votes[1] += 0.0073639364;
                        // tree #165
                        votes[2] += -0.0020811642;
                        // tree #166
                        votes[0] += 0.0037378916;
                        // tree #167
                        votes[1] += 0.005234885;
                        // tree #168
                        votes[2] += 0.0005795957;
                        // tree #169
                        votes[0] += 0.006263275;
                        // tree #170
                        votes[1] += -0.0070190397;
                        // tree #171
                        votes[2] += 0.0015416129;
                        // tree #172
                        votes[0] += 0.0020576406;
                        // tree #173
                        votes[1] += 0.007147204;
                        // tree #174
                        votes[2] += 0.0021573885;
                        // tree #175
                        votes[0] += 0.003697846;
                        // tree #176
                        votes[1] += -0.0069594076;
                        // tree #177
                        votes[2] += -1.7494296e-05;
                        // tree #178
                        votes[0] += 0.002657808;
                        // tree #179
                        votes[1] += 0.0039469847;
                        // tree #180
                        votes[2] += 0.00088509615;
                        // tree #181
                        votes[0] += 0.0036574854;
                        // tree #182
                        votes[1] += 0.0021300928;
                        // tree #183
                        votes[2] += 0.0016841986;
                        // tree #184
                        votes[0] += -0.010671738;
                        // tree #185
                        votes[1] += -0.0039169095;
                        // tree #186
                        votes[2] += 0.0013191388;
                        // tree #187
                        votes[0] += 0.0055886526;
                        // tree #188
                        votes[1] += -0.004922631;
                        // tree #189
                        votes[2] += 0.004135545;
                        // tree #190
                        votes[0] += -0.00954676;
                        // tree #191
                        votes[1] += 0.0060805692;
                        // tree #192
                        votes[2] += 0.0010348625;
                        // tree #193
                        votes[0] += 0.007484747;
                        // tree #194
                        votes[1] += 0.0063030007;
                        // tree #195
                        votes[2] += -0.003907869;
                        // tree #196
                        votes[0] += 0.004629127;
                        // tree #197
                        votes[1] += -0.0051174974;
                        // tree #198
                        votes[2] += 0.0015124884;
                        // tree #199
                        votes[0] += -0.011281662;
                        // tree #200
                        votes[1] += -0.0017496629;
                        // tree #201
                        votes[2] += 0.00027778896;
                        // tree #202
                        votes[0] += 0.0039009384;
                        // tree #203
                        votes[1] += -0.0040508234;
                        // tree #204
                        votes[2] += 0.0016655008;
                        // tree #205
                        votes[0] += -0.008240929;
                        // tree #206
                        votes[1] += 0.008364549;
                        // tree #207
                        votes[2] += 0.0009043573;
                        // tree #208
                        votes[0] += 0.004840531;
                        // tree #209
                        votes[1] += 0.0072403885;
                        // tree #210
                        votes[2] += 0.0016372441;
                        // tree #211
                        votes[0] += 0.0033479284;
                        // tree #212
                        votes[1] += -0.006925672;
                        // tree #213
                        votes[2] += 0.0025987835;
                        // tree #214
                        votes[0] += -0.0071257316;
                        // tree #215
                        votes[1] += -0.0035138866;
                        // tree #216
                        votes[2] += -0.002021413;
                        // tree #217
                        votes[0] += 0.006536542;
                        // tree #218
                        votes[1] += 0.007356099;
                        // tree #219
                        votes[2] += -0.00029391696;
                        // tree #220
                        votes[0] += -0.007924755;
                        // tree #221
                        votes[1] += -0.0016013214;
                        // tree #222
                        votes[2] += 0.002623342;
                        // tree #223
                        votes[0] += 0.0071968297;
                        // tree #224
                        votes[1] += -0.0035590706;
                        // tree #225
                        votes[2] += -0.0037475156;
                        // tree #226
                        votes[0] += -0.00938886;
                        // tree #227
                        votes[1] += -0.00543705;
                        // tree #228
                        votes[2] += 0.0016311707;
                        // tree #229
                        votes[0] += -0.008760225;
                        // tree #230
                        votes[1] += -0.002157435;
                        // tree #231
                        votes[2] += 0.00034755724;
                        // tree #232
                        votes[0] += -0.01006319;
                        // tree #233
                        votes[1] += -0.0042676823;
                        // tree #234
                        votes[2] += 0.0003680629;
                        // tree #235
                        votes[0] += 0.009679344;
                        // tree #236
                        votes[1] += -0.007886594;
                        // tree #237
                        votes[2] += -0.0022202947;
                        // tree #238
                        votes[0] += 0.0034520554;
                        // tree #239
                        votes[1] += -0.005221032;
                        // tree #240
                        votes[2] += -0.004046953;
                        // tree #241
                        votes[0] += -0.005430365;
                        // tree #242
                        votes[1] += -0.0036360763;
                        // tree #243
                        votes[2] += 0.0010708784;
                        // tree #244
                        votes[0] += -0.008804128;
                        // tree #245
                        votes[1] += -0.0034294974;
                        // tree #246
                        votes[2] += 0.000292667;
                        // tree #247
                        votes[0] += -0.007171455;
                        // tree #248
                        votes[1] += -0.00035442555;
                        // tree #249
                        votes[2] += -0.0028809786;
                        // tree #250
                        votes[0] += 0.004341456;
                        // tree #251
                        votes[1] += -0.0036295804;
                        // tree #252
                        votes[2] += -0.0020570955;
                        // tree #253
                        votes[0] += 0.0050844555;
                        // tree #254
                        votes[1] += -0.0032017124;
                        // tree #255
                        votes[2] += -0.0028737145;
                        // tree #256
                        votes[0] += -0.0075149448;
                        // tree #257
                        votes[1] += 0.0049862415;
                        // tree #258
                        votes[2] += 0.0005829869;
                        // tree #259
                        votes[0] += 0.0060859104;
                        // tree #260
                        votes[1] += -0.0021509954;
                        // tree #261
                        votes[2] += 0.00082393305;
                        // tree #262
                        votes[0] += -0.011711215;
                        // tree #263
                        votes[1] += -0.0020587852;
                        // tree #264
                        votes[2] += -0.0040061204;
                        // tree #265
                        votes[0] += -0.0055731595;
                        // tree #266
                        votes[1] += -0.0010114755;
                        // tree #267
                        votes[2] += -0.0017865958;
                        // tree #268
                        votes[0] += 0.0059159137;
                        // tree #269
                        votes[1] += -0.0010640835;
                        // tree #270
                        votes[2] += -0.005454465;
                        // tree #271
                        votes[0] += 0.007170279;
                        // tree #272
                        votes[1] += 0.00479001;
                        // tree #273
                        votes[2] += -0.0019942694;
                        // tree #274
                        votes[0] += 0.007030323;
                        // tree #275
                        votes[1] += 0.0019986476;
                        // tree #276
                        votes[2] += -0.0028289538;
                        // tree #277
                        votes[0] += -0.0061985007;
                        // tree #278
                        votes[1] += -0.0038867793;
                        // tree #279
                        votes[2] += 0.0010899714;
                        // tree #280
                        votes[0] += -0.010199018;
                        // tree #281
                        votes[1] += 0.007842488;
                        // tree #282
                        votes[2] += -0.0007144431;
                        // tree #283
                        votes[0] += -0.0072190217;
                        // tree #284
                        votes[1] += -0.0042004036;
                        // tree #285
                        votes[2] += 0.0049084257;
                        // tree #286
                        votes[0] += 0.0076944144;
                        // tree #287
                        votes[1] += -0.0057962146;
                        // tree #288
                        votes[2] += 0.00080932095;
                        // tree #289
                        votes[0] += -0.0038225355;
                        // tree #290
                        votes[1] += -0.0026383216;
                        // tree #291
                        votes[2] += -0.00034338358;
                        // tree #292
                        votes[0] += -0.009148349;
                        // tree #293
                        votes[1] += -0.003315342;
                        // tree #294
                        votes[2] += -0.003157165;
                        // tree #295
                        votes[0] += -0.007289871;
                        // tree #296
                        votes[1] += 0.00884391;
                        // tree #297
                        votes[2] += -0.0025201282;
                        // tree #298
                        votes[0] += 0.008752374;
                        // tree #299
                        votes[1] += -0.005783127;
                        // tree #300
                        votes[2] += -0.0032813458;
                        // tree #301
                        votes[0] += 0.008093265;
                        // tree #302
                        votes[1] += 0.008256153;
                        // tree #303
                        votes[2] += 0.0010764839;
                        // tree #304
                        votes[0] += -0.008736465;
                        // tree #305
                        votes[1] += -0.0053007687;
                        // tree #306
                        votes[2] += -0.0030044068;
                        // tree #307
                        votes[0] += -0.007981282;
                        // tree #308
                        votes[1] += 0.008327924;
                        // tree #309
                        votes[2] += -0.0019881162;
                        // tree #310
                        votes[0] += -0.0029227273;
                        // tree #311
                        votes[1] += -0.0053591663;
                        // tree #312
                        votes[2] += -0.0015416557;
                        // tree #313
                        votes[0] += 0.007085485;
                        // tree #314
                        votes[1] += -0.0030432085;
                        // tree #315
                        votes[2] += -0.001655768;
                        // tree #316
                        votes[0] += 0.0035731776;
                        // tree #317
                        votes[1] += -0.0058109276;
                        // tree #318
                        votes[2] += -0.0005400367;
                        // tree #319
                        votes[0] += 0.0050140177;
                        // tree #320
                        votes[1] += 0.0013112219;
                        // tree #321
                        votes[2] += -0.0027900657;
                        // tree #322
                        votes[0] += 0.0058945734;
                        // tree #323
                        votes[1] += -0.0050888546;
                        // tree #324
                        votes[2] += -5.6762976e-05;
                        // tree #325
                        votes[0] += 0.0066816034;
                        // tree #326
                        votes[1] += 0.0049481443;
                        // tree #327
                        votes[2] += -2.2494369e-05;
                        // tree #328
                        votes[0] += 0.0045774993;
                        // tree #329
                        votes[1] += -0.007317818;
                        // tree #330
                        votes[2] += 0.0015763055;
                        // tree #331
                        votes[0] += 0.002874116;
                        // tree #332
                        votes[1] += -0.0026689272;
                        // tree #333
                        votes[2] += 0.0009951326;
                        // tree #334
                        votes[0] += -0.00925402;
                        // tree #335
                        votes[1] += 0.009926988;
                        // tree #336
                        votes[2] += -0.0027834645;
                        // tree #337
                        votes[0] += 0.005453841;
                        // tree #338
                        votes[1] += 0.006136558;
                        // tree #339
                        votes[2] += -0.00091971393;
                        // tree #340
                        votes[0] += -0.011192913;
                        // tree #341
                        votes[1] += -0.008272683;
                        // tree #342
                        votes[2] += 0.0011230236;
                        // tree #343
                        votes[0] += -0.0055876942;
                        // tree #344
                        votes[1] += 0.0046565486;
                        // tree #345
                        votes[2] += -0.0028987932;
                        // tree #346
                        votes[0] += 0.0076169423;
                        // tree #347
                        votes[1] += -0.008405168;
                        // tree #348
                        votes[2] += 0.002351946;
                        // tree #349
                        votes[0] += 0.005541434;
                        // tree #350
                        votes[1] += -0.0053948876;
                        // tree #351
                        votes[2] += 0.001519664;
                        // tree #352
                        votes[0] += 0.00102038;
                        // tree #353
                        votes[1] += 0.009473048;
                        // tree #354
                        votes[2] += 0.0012744934;
                        // tree #355
                        votes[0] += 0.005200113;
                        // tree #356
                        votes[1] += -0.0067582363;
                        // tree #357
                        votes[2] += -0.0043403585;
                        // tree #358
                        votes[0] += 0.0025186369;
                        // tree #359
                        votes[1] += -0.007693263;
                        // tree #360
                        votes[2] += 0.00088052184;
                        // return argmax of votes
                        uint8_t classIdx = 0;
                        float maxVotes = votes[0];

                        for (uint8_t i = 0; i < 3; i++) {
                            if (votes[i] > maxVotes) {
                                classIdx = i;
                                maxVotes = votes[i];
                            }
                        }

                        return classIdx;
                    }

                protected:
                };
            }
        }
    }